digraph Tree {
node [shape=box] ;
0 [label="X[6] <= 3.478\ngini = 0.729\nsamples = 838799\nvalue = [33316, 78082, 237324, 305728, 184349]"] ;
1 [label="X[6] <= 3.038\ngini = 0.746\nsamples = 207172\nvalue = [18507, 37605, 76521, 53279, 21260]"] ;
0 -> 1 [labeldistance=2.5, labelangle=45, headlabel="True"] ;
2 [label="X[6] <= 2.475\ngini = 0.747\nsamples = 86715\nvalue = [11314, 20289, 32393, 16677, 6042]"] ;
1 -> 2 ;
3 [label="X[6] <= 2.1\ngini = 0.723\nsamples = 3426\nvalue = [1194, 1095, 736, 271, 130]"] ;
2 -> 3 ;
4 [label="X[3] <= 2004.0\ngini = 0.703\nsamples = 1551\nvalue = [634, 472, 272, 100, 73]"] ;
3 -> 4 ;
5 [label="gini = 0.708\nsamples = 1271\nvalue = [522, 373, 219, 91, 66]"] ;
4 -> 5 ;
6 [label="gini = 0.677\nsamples = 280\nvalue = [112, 99, 53, 9, 7]"] ;
4 -> 6 ;
7 [label="X[1] <= 1.708\ngini = 0.73\nsamples = 1875\nvalue = [560, 623, 464, 171, 57]"] ;
3 -> 7 ;
8 [label="X[1] <= 1.252\ngini = 0.743\nsamples = 655\nvalue = [168, 198, 190, 78, 21]"] ;
7 -> 8 ;
9 [label="gini = 0.741\nsamples = 331\nvalue = [96, 89, 97, 43, 6]"] ;
8 -> 9 ;
10 [label="gini = 0.741\nsamples = 324\nvalue = [72, 109, 93, 35, 15]"] ;
8 -> 10 ;
11 [label="gini = 0.718\nsamples = 1220\nvalue = [392, 425, 274, 93, 36]"] ;
7 -> 11 ;
12 [label="X[6] <= 2.868\ngini = 0.744\nsamples = 83289\nvalue = [10120, 19194, 31657, 16406, 5912]"] ;
2 -> 12 ;
13 [label="X[6] <= 2.765\ngini = 0.752\nsamples = 42287\nvalue = [6117, 10383, 15196, 7683, 2908]"] ;
12 -> 13 ;
14 [label="X[5] <= 1.89\ngini = 0.748\nsamples = 10352\nvalue = [1764, 2823, 3629, 1581, 555]"] ;
13 -> 14 ;
15 [label="X[3] <= 2002.0\ngini = 0.726\nsamples = 1996\nvalue = [298, 521, 791, 319, 67]"] ;
14 -> 15 ;
16 [label="gini = 0.73\nsamples = 1388\nvalue = [216, 340, 545, 242, 45]"] ;
15 -> 16 ;
17 [label="gini = 0.712\nsamples = 608\nvalue = [82, 181, 246, 77, 22]"] ;
15 -> 17 ;
18 [label="X[4] <= 129.0\ngini = 0.752\nsamples = 8356\nvalue = [1466, 2302, 2838, 1262, 488]"] ;
14 -> 18 ;
19 [label="X[3] <= 2000.5\ngini = 0.755\nsamples = 6157\nvalue = [1130, 1671, 2043, 962, 351]"] ;
18 -> 19 ;
20 [label="X[6] <= 2.564\ngini = 0.752\nsamples = 5640\nvalue = [1034, 1542, 1894, 867, 303]"] ;
19 -> 20 ;
21 [label="gini = 0.745\nsamples = 468\nvalue = [106, 114, 165, 64, 19]"] ;
20 -> 21 ;
22 [label="X[3] <= 1992.0\ngini = 0.753\nsamples = 5172\nvalue = [928, 1428, 1729, 803, 284]"] ;
20 -> 22 ;
23 [label="gini = 0.754\nsamples = 4828\nvalue = [868, 1325, 1610, 750, 275]"] ;
22 -> 23 ;
24 [label="gini = 0.736\nsamples = 344\nvalue = [60, 103, 119, 53, 9]"] ;
22 -> 24 ;
25 [label="gini = 0.778\nsamples = 517\nvalue = [96, 129, 149, 95, 48]"] ;
19 -> 25 ;
26 [label="X[3] <= 2002.5\ngini = 0.741\nsamples = 2199\nvalue = [336, 631, 795, 300, 137]"] ;
18 -> 26 ;
27 [label="gini = 0.74\nsamples = 1144\nvalue = [166, 329, 419, 151, 79]"] ;
26 -> 27 ;
28 [label="gini = 0.742\nsamples = 1055\nvalue = [170, 302, 376, 149, 58]"] ;
26 -> 28 ;
29 [label="X[5] <= 8.333\ngini = 0.752\nsamples = 31935\nvalue = [4353, 7560, 11567, 6102, 2353]"] ;
13 -> 29 ;
30 [label="X[2] <= 30.0\ngini = 0.741\nsamples = 10192\nvalue = [1388, 2439, 3918, 1802, 645]"] ;
29 -> 30 ;
31 [label="X[5] <= 2.043\ngini = 0.714\nsamples = 852\nvalue = [97, 184, 369, 164, 38]"] ;
30 -> 31 ;
32 [label="gini = 0.711\nsamples = 431\nvalue = [45, 96, 186, 87, 17]"] ;
31 -> 32 ;
33 [label="gini = 0.716\nsamples = 421\nvalue = [52, 88, 183, 77, 21]"] ;
31 -> 33 ;
34 [label="gini = 0.743\nsamples = 9340\nvalue = [1291, 2255, 3549, 1638, 607]"] ;
30 -> 34 ;
35 [label="gini = 0.757\nsamples = 21743\nvalue = [2965, 5121, 7649, 4300, 1708]"] ;
29 -> 35 ;
36 [label="X[5] <= 8.366\ngini = 0.732\nsamples = 41002\nvalue = [4003, 8811, 16461, 8723, 3004]"] ;
12 -> 36 ;
37 [label="X[4] <= 155.0\ngini = 0.718\nsamples = 23942\nvalue = [2079, 5068, 10173, 5095, 1527]"] ;
36 -> 37 ;
38 [label="X[6] <= 3.011\ngini = 0.712\nsamples = 22517\nvalue = [1861, 4813, 9731, 4776, 1336]"] ;
37 -> 38 ;
39 [label="X[6] <= 2.991\ngini = 0.716\nsamples = 18498\nvalue = [1604, 4061, 7872, 3848, 1113]"] ;
38 -> 39 ;
40 [label="X[6] <= 2.936\ngini = 0.714\nsamples = 16371\nvalue = [1417, 3641, 7022, 3358, 933]"] ;
39 -> 40 ;
41 [label="X[5] <= 4.229\ngini = 0.717\nsamples = 11709\nvalue = [1084, 2639, 4972, 2337, 677]"] ;
40 -> 41 ;
42 [label="gini = 0.732\nsamples = 415\nvalue = [44, 94, 168, 80, 29]"] ;
41 -> 42 ;
43 [label="gini = 0.717\nsamples = 11294\nvalue = [1040, 2545, 4804, 2257, 648]"] ;
41 -> 43 ;
44 [label="X[2] <= 14.5\ngini = 0.704\nsamples = 4662\nvalue = [333, 1002, 2050, 1021, 256]"] ;
40 -> 44 ;
45 [label="X[5] <= 1.848\ngini = 0.695\nsamples = 440\nvalue = [40, 71, 209, 88, 32]"] ;
44 -> 45 ;
46 [label="gini = 0.694\nsamples = 188\nvalue = [19, 28, 89, 40, 12]"] ;
45 -> 46 ;
47 [label="gini = 0.695\nsamples = 252\nvalue = [21, 43, 120, 48, 20]"] ;
45 -> 47 ;
48 [label="gini = 0.705\nsamples = 4222\nvalue = [293, 931, 1841, 933, 224]"] ;
44 -> 48 ;
49 [label="gini = 0.733\nsamples = 2127\nvalue = [187, 420, 850, 490, 180]"] ;
39 -> 49 ;
50 [label="X[2] <= 14.5\ngini = 0.691\nsamples = 4019\nvalue = [257, 752, 1859, 928, 223]"] ;
38 -> 50 ;
51 [label="gini = 0.674\nsamples = 540\nvalue = [34, 96, 267, 111, 32]"] ;
50 -> 51 ;
52 [label="gini = 0.693\nsamples = 3479\nvalue = [223, 656, 1592, 817, 191]"] ;
50 -> 52 ;
53 [label="gini = 0.78\nsamples = 1425\nvalue = [218, 255, 442, 319, 191]"] ;
37 -> 53 ;
54 [label="X[2] <= 496.5\ngini = 0.751\nsamples = 17060\nvalue = [1924, 3743, 6288, 3628, 1477]"] ;
36 -> 54 ;
55 [label="X[3] <= 1998.5\ngini = 0.743\nsamples = 9227\nvalue = [944, 2056, 3538, 1910, 779]"] ;
54 -> 55 ;
56 [label="gini = 0.744\nsamples = 3860\nvalue = [367, 789, 1482, 854, 368]"] ;
55 -> 56 ;
57 [label="gini = 0.741\nsamples = 5367\nvalue = [577, 1267, 2056, 1056, 411]"] ;
55 -> 57 ;
58 [label="gini = 0.759\nsamples = 7833\nvalue = [980, 1687, 2750, 1718, 698]"] ;
54 -> 58 ;
59 [label="X[6] <= 3.174\ngini = 0.733\nsamples = 120457\nvalue = [7193, 17316, 44128, 36602, 15218]"] ;
1 -> 59 ;
60 [label="X[6] <= 3.138\ngini = 0.702\nsamples = 35333\nvalue = [1856, 5869, 14808, 10474, 2326]"] ;
59 -> 60 ;
61 [label="X[6] <= 3.07\ngini = 0.71\nsamples = 4781\nvalue = [282, 898, 2045, 1200, 356]"] ;
60 -> 61 ;
62 [label="gini = 0.682\nsamples = 202\nvalue = [16, 30, 97, 48, 11]"] ;
61 -> 62 ;
63 [label="X[6] <= 3.114\ngini = 0.711\nsamples = 4579\nvalue = [266, 868, 1948, 1152, 345]"] ;
61 -> 63 ;
64 [label="gini = 0.71\nsamples = 4265\nvalue = [250, 811, 1818, 1075, 311]"] ;
63 -> 64 ;
65 [label="gini = 0.721\nsamples = 314\nvalue = [16, 57, 130, 77, 34]"] ;
63 -> 65 ;
66 [label="X[6] <= 3.157\ngini = 0.7\nsamples = 30552\nvalue = [1574, 4971, 12763, 9274, 1970]"] ;
60 -> 66 ;
67 [label="gini = 0.762\nsamples = 191\nvalue = [33, 17, 54, 61, 26]"] ;
66 -> 67 ;
68 [label="gini = 0.699\nsamples = 30361\nvalue = [1541, 4954, 12709, 9213, 1944]"] ;
66 -> 68 ;
69 [label="X[6] <= 3.394\ngini = 0.742\nsamples = 85124\nvalue = [5337, 11447, 29320, 26128, 12892]"] ;
59 -> 69 ;
70 [label="X[6] <= 3.338\ngini = 0.741\nsamples = 49826\nvalue = [3351, 7164, 17703, 14850, 6758]"] ;
69 -> 70 ;
71 [label="X[4] <= 158.0\ngini = 0.744\nsamples = 47091\nvalue = [3276, 6844, 16589, 13857, 6525]"] ;
70 -> 71 ;
72 [label="X[3] <= 2002.5\ngini = 0.742\nsamples = 44593\nvalue = [3042, 6409, 15790, 13258, 6094]"] ;
71 -> 72 ;
73 [label="X[6] <= 3.258\ngini = 0.742\nsamples = 44404\nvalue = [3000, 6398, 15746, 13217, 6043]"] ;
72 -> 73 ;
74 [label="X[5] <= 3.349\ngini = 0.735\nsamples = 4732\nvalue = [403, 612, 1835, 1297, 585]"] ;
73 -> 74 ;
75 [label="gini = 0.688\nsamples = 299\nvalue = [19, 31, 141, 75, 33]"] ;
74 -> 75 ;
76 [label="gini = 0.738\nsamples = 4433\nvalue = [384, 581, 1694, 1222, 552]"] ;
74 -> 76 ;
77 [label="X[4] <= 97.5\ngini = 0.742\nsamples = 39672\nvalue = [2597, 5786, 13911, 11920, 5458]"] ;
73 -> 77 ;
78 [label="X[6] <= 3.276\ngini = 0.742\nsamples = 4177\nvalue = [365, 539, 1452, 1305, 516]"] ;
77 -> 78 ;
79 [label="gini = 0.74\nsamples = 3719\nvalue = [318, 477, 1313, 1155, 456]"] ;
78 -> 79 ;
80 [label="gini = 0.755\nsamples = 458\nvalue = [47, 62, 139, 150, 60]"] ;
78 -> 80 ;
81 [label="gini = 0.742\nsamples = 35495\nvalue = [2232, 5247, 12459, 10615, 4942]"] ;
77 -> 81 ;
82 [label="gini = 0.773\nsamples = 189\nvalue = [42, 11, 44, 41, 51]"] ;
72 -> 82 ;
83 [label="X[2] <= 27.5\ngini = 0.771\nsamples = 2498\nvalue = [234, 435, 799, 599, 431]"] ;
71 -> 83 ;
84 [label="gini = 0.77\nsamples = 347\nvalue = [41, 50, 107, 96, 53]"] ;
83 -> 84 ;
85 [label="gini = 0.771\nsamples = 2151\nvalue = [193, 385, 692, 503, 378]"] ;
83 -> 85 ;
86 [label="gini = 0.681\nsamples = 2735\nvalue = [75, 320, 1114, 993, 233]"] ;
70 -> 86 ;
87 [label="X[5] <= 9.209\ngini = 0.742\nsamples = 35298\nvalue = [1986, 4283, 11617, 11278, 6134]"] ;
69 -> 87 ;
88 [label="X[0] <= 6.0\ngini = 0.717\nsamples = 4463\nvalue = [195, 458, 1645, 1489, 676]"] ;
87 -> 88 ;
89 [label="gini = 0.715\nsamples = 2012\nvalue = [85, 226, 716, 713, 272]"] ;
88 -> 89 ;
90 [label="X[2] <= 14.0\ngini = 0.718\nsamples = 2451\nvalue = [110, 232, 929, 776, 404]"] ;
88 -> 90 ;
91 [label="gini = 0.727\nsamples = 878\nvalue = [45, 90, 333, 256, 154]"] ;
90 -> 91 ;
92 [label="gini = 0.712\nsamples = 1573\nvalue = [65, 142, 596, 520, 250]"] ;
90 -> 92 ;
93 [label="gini = 0.745\nsamples = 30835\nvalue = [1791, 3825, 9972, 9789, 5458]"] ;
87 -> 93 ;
94 [label="X[6] <= 3.869\ngini = 0.704\nsamples = 631627\nvalue = [14809, 40477, 160803, 252449, 163089]"] ;
0 -> 94 [labeldistance=2.5, labelangle=-45, headlabel="False"] ;
95 [label="X[6] <= 3.63\ngini = 0.7\nsamples = 488508\nvalue = [10642, 32682, 134730, 199726, 110728]"] ;
94 -> 95 ;
96 [label="X[6] <= 3.517\ngini = 0.711\nsamples = 62989\nvalue = [1831, 5646, 21398, 23112, 11002]"] ;
95 -> 96 ;
97 [label="X[6] <= 3.496\ngini = 0.724\nsamples = 14051\nvalue = [596, 1514, 4567, 5059, 2315]"] ;
96 -> 97 ;
98 [label="gini = 0.724\nsamples = 13041\nvalue = [565, 1398, 4203, 4730, 2145]"] ;
97 -> 98 ;
99 [label="gini = 0.722\nsamples = 1010\nvalue = [31, 116, 364, 329, 170]"] ;
97 -> 99 ;
100 [label="X[3] <= 1988.0\ngini = 0.706\nsamples = 48938\nvalue = [1235, 4132, 16831, 18053, 8687]"] ;
96 -> 100 ;
101 [label="X[2] <= 61.0\ngini = 0.703\nsamples = 20208\nvalue = [641, 1605, 7113, 7539, 3310]"] ;
100 -> 101 ;
102 [label="X[4] <= 164.0\ngini = 0.71\nsamples = 5099\nvalue = [216, 385, 1717, 1909, 872]"] ;
101 -> 102 ;
103 [label="gini = 0.704\nsamples = 1528\nvalue = [55, 102, 532, 566, 273]"] ;
102 -> 103 ;
104 [label="gini = 0.712\nsamples = 3571\nvalue = [161, 283, 1185, 1343, 599]"] ;
102 -> 104 ;
105 [label="gini = 0.7\nsamples = 15109\nvalue = [425, 1220, 5396, 5630, 2438]"] ;
101 -> 105 ;
106 [label="X[3] <= 1998.5\ngini = 0.708\nsamples = 28730\nvalue = [594, 2527, 9718, 10514, 5377]"] ;
100 -> 106 ;
107 [label="gini = 0.708\nsamples = 27901\nvalue = [537, 2471, 9492, 10198, 5203]"] ;
106 -> 107 ;
108 [label="gini = 0.727\nsamples = 829\nvalue = [57, 56, 226, 316, 174]"] ;
106 -> 108 ;
109 [label="X[6] <= 3.775\ngini = 0.697\nsamples = 425519\nvalue = [8811, 27036, 113332, 176614, 99726]"] ;
95 -> 109 ;
110 [label="X[1] <= 8.048\ngini = 0.694\nsamples = 271724\nvalue = [5924, 17410, 74221, 115401, 58768]"] ;
109 -> 110 ;
111 [label="X[6] <= 3.681\ngini = 0.708\nsamples = 46777\nvalue = [1276, 3291, 13542, 18348, 10320]"] ;
110 -> 111 ;
112 [label="X[4] <= 56.5\ngini = 0.716\nsamples = 8580\nvalue = [331, 736, 2225, 3463, 1825]"] ;
111 -> 112 ;
113 [label="gini = 0.704\nsamples = 2914\nvalue = [103, 266, 742, 1259, 544]"] ;
112 -> 113 ;
114 [label="gini = 0.721\nsamples = 5666\nvalue = [228, 470, 1483, 2204, 1281]"] ;
112 -> 114 ;
115 [label="X[6] <= 3.746\ngini = 0.706\nsamples = 38197\nvalue = [945, 2555, 11317, 14885, 8495]"] ;
111 -> 115 ;
116 [label="X[4] <= 74.0\ngini = 0.707\nsamples = 29103\nvalue = [727, 1984, 8805, 11198, 6389]"] ;
115 -> 116 ;
117 [label="gini = 0.707\nsamples = 13612\nvalue = [399, 924, 4188, 5252, 2849]"] ;
116 -> 117 ;
118 [label="X[5] <= 7.043\ngini = 0.706\nsamples = 15491\nvalue = [328, 1060, 4617, 5946, 3540]"] ;
116 -> 118 ;
119 [label="gini = 0.716\nsamples = 5565\nvalue = [153, 423, 1645, 2054, 1290]"] ;
118 -> 119 ;
120 [label="gini = 0.701\nsamples = 9926\nvalue = [175, 637, 2972, 3892, 2250]"] ;
118 -> 120 ;
121 [label="X[6] <= 3.753\ngini = 0.701\nsamples = 9094\nvalue = [218, 571, 2512, 3687, 2106]"] ;
115 -> 121 ;
122 [label="gini = 0.72\nsamples = 891\nvalue = [44, 52, 217, 331, 247]"] ;
121 -> 122 ;
123 [label="gini = 0.699\nsamples = 8203\nvalue = [174, 519, 2295, 3356, 1859]"] ;
121 -> 123 ;
124 [label="X[5] <= 8.921\ngini = 0.69\nsamples = 224947\nvalue = [4648, 14119, 60679, 97053, 48448]"] ;
110 -> 124 ;
125 [label="gini = 0.667\nsamples = 30004\nvalue = [402, 1638, 8882, 13801, 5281]"] ;
124 -> 125 ;
126 [label="X[6] <= 3.764\ngini = 0.693\nsamples = 194943\nvalue = [4246, 12481, 51797, 83252, 43167]"] ;
124 -> 126 ;
127 [label="gini = 0.693\nsamples = 189562\nvalue = [4089, 12172, 50343, 81040, 41918]"] ;
126 -> 127 ;
128 [label="gini = 0.7\nsamples = 5381\nvalue = [157, 309, 1454, 2212, 1249]"] ;
126 -> 128 ;
129 [label="X[6] <= 3.838\ngini = 0.702\nsamples = 153795\nvalue = [2887, 9626, 39111, 61213, 40958]"] ;
109 -> 129 ;
130 [label="X[3] <= 1979.0\ngini = 0.709\nsamples = 91362\nvalue = [1908, 6038, 23852, 34769, 24795]"] ;
129 -> 130 ;
131 [label="gini = 0.724\nsamples = 10473\nvalue = [297, 829, 2666, 3558, 3123]"] ;
130 -> 131 ;
132 [label="X[2] <= 757.0\ngini = 0.706\nsamples = 80889\nvalue = [1611, 5209, 21186, 31211, 21672]"] ;
130 -> 132 ;
133 [label="gini = 0.703\nsamples = 17238\nvalue = [302, 1143, 4765, 6815, 4213]"] ;
132 -> 133 ;
134 [label="gini = 0.707\nsamples = 63651\nvalue = [1309, 4066, 16421, 24396, 17459]"] ;
132 -> 134 ;
135 [label="X[0] <= 7.5\ngini = 0.69\nsamples = 62433\nvalue = [979, 3588, 15259, 26444, 16163]"] ;
129 -> 135 ;
136 [label="gini = 0.68\nsamples = 1049\nvalue = [35, 46, 215, 475, 278]"] ;
135 -> 136 ;
137 [label="gini = 0.69\nsamples = 61384\nvalue = [944, 3542, 15044, 25969, 15885]"] ;
135 -> 137 ;
138 [label="X[2] <= 2093.0\ngini = 0.693\nsamples = 143119\nvalue = [4167, 7795, 26073, 52723, 52361]"] ;
94 -> 138 ;
139 [label="X[1] <= 2.173\ngini = 0.696\nsamples = 26942\nvalue = [790, 1233, 5778, 10574, 8567]"] ;
138 -> 139 ;
140 [label="X[3] <= 2004.5\ngini = 0.704\nsamples = 2745\nvalue = [269, 111, 400, 818, 1147]"] ;
139 -> 140 ;
141 [label="gini = 0.695\nsamples = 1810\nvalue = [192, 77, 228, 512, 801]"] ;
140 -> 141 ;
142 [label="gini = 0.714\nsamples = 935\nvalue = [77, 34, 172, 306, 346]"] ;
140 -> 142 ;
143 [label="X[5] <= 5.597\ngini = 0.691\nsamples = 24197\nvalue = [521, 1122, 5378, 9756, 7420]"] ;
139 -> 143 ;
144 [label="X[4] <= 139.0\ngini = 0.703\nsamples = 9579\nvalue = [294, 519, 2031, 3620, 3115]"] ;
143 -> 144 ;
145 [label="gini = 0.701\nsamples = 2234\nvalue = [83, 112, 466, 883, 690]"] ;
144 -> 145 ;
146 [label="gini = 0.703\nsamples = 7345\nvalue = [211, 407, 1565, 2737, 2425]"] ;
144 -> 146 ;
147 [label="gini = 0.683\nsamples = 14618\nvalue = [227, 603, 3347, 6136, 4305]"] ;
143 -> 147 ;
148 [label="gini = 0.692\nsamples = 116177\nvalue = [3377, 6562, 20295, 42149, 43794]"] ;
138 -> 148 ;
}